[0.0, 0.0, 0.0, 0.0, 0.0, 0.0, 0.0, 0.0, 0.0, 0.0, 0.0, 0.0, 0.0, 0.0, 0.0, 0.0, 0.0, 0.0, 0.0, 0.0, 2.5269640099535298e-05, 0.00015161784059721184, 0.00020215712079628238, 0.0039532825517089587, 0.022513937534628801, 0.016153844507261445, 0.0024510482031243146, 6.8467754774494119e-07, 0.0, 0.0059034478509098287, 0.037856112008202873, 0.046164566636527217, 0.013743535436254272, 0.00098117983474614004, 0.0, 0.0011801528505306889, 0.0094412228042455113, 0.012981681355837573, 0.0023603057010613778, 0.0, 0.0, 0.0, 0.0, 0.0, 0.0, 0.0, 0.0, 1.2634820049767649e-05, 0.00035377889947339237, 0.001487638821727106, 0.0039262444931249044, 0.038527928200798409, 0.088102511496795474, 0.06266881499341706, 0.014213957077723006, 5.1350816080870542e-06, 0.0, 0.03001134789202619, 0.097853111485677047, 0.11011443027810246, 0.093498340600955313, 0.087355675424998072, 0.14232429050045181, 0.1605324749070027, 0.14104000888499132, 0.10285209279171563, 0.0016307371752303738, -0.089163378164598225, -0.10678801677147789, -0.1137524526478674, -0.11143097402234964, -0.084733969829453915, -0.083573230516606867, -0.081251751891076529, -0.049873885987218515, -0.011176013147756705, 0.000825580379591279, 0.0055045558739236491, 0.03666986446941578, 0.099294731578906614, 0.11309010769020908, 0.07492108379345834, 0.012758014489247524, 9.5854856684291798e-06, 0.0, 0.0064373138921011491, 0.059107633337199046, 0.111274138105667, 0.21210994440661254, 0.38090517315057676, 0.32260218486469677, 0.178419605687824, 0.081697537157765801, 0.0039432820136975737, -0.065971585137305763, -0.2646103430730159, -0.35516912785626437, -0.35858482018514204, -0.34755917747767479, -0.28369233066671395, -0.24633573791560653, -0.24118083690758454, -0.21494427881744804, -0.16065136656768042, -0.031128356056066259, 0.051730843845511888, 0.10121045109737432, 0.12235487248946168, 0.10087467250152918, 0.033320377899659789, 0.0019772023558905609, 1.7116938693623534e-06, 0.0, 9.3550307045417985e-06, 0.0059685506482074647, 0.091131625027147722, 0.33988246743958095, 0.42675708155759706, 0.23364210087417978, -0.016022020203100638, -0.1756664740259683, -0.18461780749333453, -0.15381857377161035, -0.29130930262973531, -0.45616404924022813, -0.45984270655407267, -0.45372922890018785, -0.36447764912217701, -0.20240936982688865, -0.14173055180881489, -0.20617273223387853, -0.19007617474961996, -0.1117388370426238, 0.015475667803948035, 0.097405077412099222, 0.099789912504989225, 0.060396226232213301, 0.04983723971706109, 0.013558277994090852, 0.0011296568018894807, 0.0, 0.0, 0.0012141704124083118, 0.09704562864895612, 0.21564666240204589, 0.18363257514282078, 0.013273112579027073, -0.20940404564898321, -0.25270966709231019, -0.077133407830792949, 0.040335312423089686, -0.034772211251006498, -0.22207293378935436, -0.27049729845999398, -0.21407326416820624, -0.080412799789175662, -0.0038817749026753374, 0.081419297695654133, 0.1454204427741084, 0.041738428113871011, -0.070763835176776702, -0.13026690944171923, -0.064423433139581876, 0.060233820351051015, 0.10805464051977384, 0.12144002017779493, 0.061001467302031875, 0.0050834556085026655, 0.0, 0.0, 0.00712630821144929, 0.074178916647738014, 0.042661806296499988, -0.042611451371708464, -0.22004900696583532, -0.097482390265713093, -0.0060956831067454113, 0.11067155220456082, 0.28924491717716783, 0.21811802933105534, 0.021753242230068148, -0.030651392498285711, 0.11804646901209254, 0.1299038299752269, 0.12598515117168468, 0.20517898086134059, 0.34225934432745408, 0.25278987137624953, 0.00072081941371458021, -0.15953071836796007, -0.16329770465535509, -0.030321709328751924, 0.11532478271678037, 0.11691947899556102, 0.045186272075579147, 0.0033889704056684362, 0.0, 0.0, -0.016133869151405529, -0.08417409609101674, -0.062616513540850072, -0.23876394616036051, -0.21124872388405752, -0.074243525983610045, 0.065125267989535329, 0.12729980294738344, 0.20954324353408532, 0.22476309176837267, 0.047710265803509684, 0.060786404141233902, 0.17529801883685137, 0.20273177746914223, 0.10657630376638098, 0.21408159795159831, 0.3460631065890642, 0.23703405651564485, 0.054528205225442661, -0.063699374031987013, -0.13647913329861103, -0.13282312963709134, -0.0048080794926593905, 0.040636562357181237, 0.0079075976132263574, 0.00056482840094474037, 0.0, 0.0, -0.070785684538697727, -0.21912512866522194, -0.24061002852833779, -0.23803110503930452, -0.14381960209603722, -0.062162430426456763, 0.025321247792069498, 0.003917309648115281, 0.056854984626477915, 0.11800493941874764, 0.056695885807369291, 0.072434327466082249, 0.13833512192483108, 0.058438690100123127, 0.0083909535884756515, 0.18179118812824357, 0.29572809397337829, 0.16139874386934661, -0.024467469029308433, 0.0029587002660806183, -0.11807869270105485, -0.227240215590785, -0.16460206162588198, -0.013959954263593798, 0.0, 0.0, 0.0, 0.0, -0.11259171333475999, -0.26232966822071008, -0.28449887226870385, -0.15504366124831948, -0.051641892975471601, -0.0088276517967442146, -0.010751746372842026, -0.074971866120260827, -0.093620387652043863, 0.015557175174489598, 0.11436658391057659, 0.17674620309687575, 0.074487014120531769, 0.021930378703884663, 0.098911650177804025, 0.11670483346986964, 0.14610685959516298, -0.033639750966729914, -0.1482309073886019, -0.15280696025799892, -0.17111251794466187, -0.27015373057591741, -0.22634416598224949, -0.059197704949203712, 0.0, 0.0, 0.0, -0.0011607393127294847, -0.14161100350793604, -0.28509450267456127, -0.3393374040964508, -0.1872963556755152, -0.040123787054325663, 0.031520458250673934, -0.05170108212479152, -0.20556079861377283, -0.17836192360037884, 0.074589626408651744, 0.28402346562052272, 0.28246621973378394, 0.079521463500054956, 0.035583613924318011, 0.1490908573983957, 0.10039277688812777, -0.014684055473029371, -0.12356821449791049, -0.22398648454121309, -0.23410705187551129, -0.23161244629860761, -0.26274340096532728, -0.26000560605140449, -0.10098432020746516, 0.0, 0.0, 0.0, -0.0081251751891063904, -0.16715227398883226, -0.32798647913921741, -0.35987401381081752, -0.23365365253922624, -0.078190581553888194, -0.019665483843019145, -0.18331394386959821, -0.22913405857663, -0.12377525687625189, 0.27467531872921275, 0.4817728931749593, 0.38821959805443818, 0.093738133916495645, 0.056606467187845691, -0.0056377449791766773, -0.049275233531790516, -0.15591343968155544, -0.11677076305104309, -0.15864649911092601, -0.2265371109623931, -0.24921343639710841, -0.28240686607933546, -0.27161299917869935, -0.12071688852386639, 0.0, 0.0, 0.0, -0.024375525567319173, -0.18689243144331213, -0.35098098551258539, -0.35946382300219365, -0.24006912574944866, -0.19553428271294393, -0.21630384449058748, -0.23386873558353277, -0.14124932023692191, 0.15259014796190412, 0.53841802813399697, 0.60830198806899927, 0.55352131402993832, 0.22354305734506785, 0.062247499450476931, -0.14150672917115159, -0.33054778575489496, -0.2458043034509981, -0.1192826986500999, -0.10938930741144809, -0.20656876293684742, -0.27661331086269597, -0.31450080372240857, -0.26697004192778145, -0.11491319196021897, 0.0, 0.0, 0.0, -0.032500700756425561, -0.19270081067016817, -0.37219198682694249, -0.36436944588903375, -0.25710042488125784, -0.33435767264669414, -0.37798412512998047, -0.18467973674733668, 0.094622323783200651, 0.47517027329707046, 0.60287822811465031, 0.65182557967742027, 0.5737339387636412, 0.36344040708138781, 0.12506111404614295, -0.15127838323605308, -0.3944896413479369, -0.40562196549150209, -0.17937487020568743, -0.089773142006377385, -0.19615653978617545, -0.31163812332629498, -0.34635877223286776, -0.25188043086229811, -0.090537666392899799, 0.0, 0.0, 0.0, -0.022054046941860205, -0.18341731823419191, -0.38743987951200298, -0.39368331698841003, -0.34172245301477061, -0.41688239235523705, -0.37799432124823107, -0.052474799151079637, 0.34334937215979838, 0.61497786951248279, 0.64339048420882805, 0.59899355260748799, 0.57225026936216139, 0.36183789999936544, 0.15939422179378579, -6.3526689557664915e-06, -0.31711089429143235, -0.45057129019174924, -0.28851633757309197, -0.11659997462032794, -0.20511878449262597, -0.33920804300980717, -0.36038933476395446, -0.22750490529497899, -0.056876226323744748, 0.0, 0.0, 0.0, -0.0069644358763769074, -0.15439964276731263, -0.38003625421325649, -0.46958980440355619, -0.46003219595746664, -0.41129028802043133, -0.2508265403449198, 0.062466139235196359, 0.41699272033263668, 0.62700129920382086, 0.5691992576917243, 0.51104385921760864, 0.53934725839237696, 0.34133743445742964, 0.16528809642198869, 0.10117523933794272, -0.16848337487537798, -0.41994514918611581, -0.34550310592925104, -0.21091555547347401, -0.22348531387657244, -0.34367140174165173, -0.34436540034322327, -0.19964716178947137, -0.030179222130966597, 0.0, 0.0, 0.0, -0.0011607393127294847, -0.092879490363574152, -0.33249184947844362, -0.54135431095581643, -0.59877491738648003, -0.38739622287240927, -0.15538456505241083, 0.092949880628871523, 0.39834300916233084, 0.59160384848318026, 0.46156969143642901, 0.3469356495417254, 0.40432289205056365, 0.37874836840264925, 0.22330981883461837, 0.096275940674729263, -0.069065753460046911, -0.31201978043945172, -0.36760384203816338, -0.31318240089562582, -0.23919341664405461, -0.33858532636584981, -0.31915724219899327, -0.17527163622215217, -0.0046429572509179388, 0.0, 0.0, 0.0, 0.0, -0.023230933353443794, -0.20701991248299595, -0.49087473024490569, -0.65405345135413506, -0.50004744100545773, -0.11721856727417108, 0.095606826673390377, 0.413095953079474, 0.52855734259412301, 0.3754536978580772, 0.20573989842952631, 0.3051424068024271, 0.39221327329629974, 0.2654571491787191, 0.069986997126689876, -0.061005407240571276, -0.22737150781151788, -0.34991093323326372, -0.27993375481820759, -0.24178346494881484, -0.30511319848820606, -0.28964378671477115, -0.14625315340391506, 0.0, 0.0, 0.0, 0.0, 0.0, -0.0011675210942165275, 0.027503659033899633, -0.12917531130399953, -0.51000450792859553, -0.5485035938119377, -0.26822244595708084, 0.053430557917214426, 0.31841431922206925, 0.3455512718203429, 0.23845523113369174, 0.14617022367106097, 0.25319539683061898, 0.34567901282602315, 0.24486300426396074, -0.0018300525647485879, -0.10799495672073764, -0.24207998380777052, -0.20370088207719875, -0.12611316202283762, -0.17249859366317852, -0.27826769209635149, -0.26464856330232245, -0.10214505952019465, 0.0, 0.0, 0.0, 0.0, 0.0, 0.001128526504974971, 0.1722460892816437, 0.18601811669899676, -0.17571134514111167, -0.3312712485794545, -0.28035690100345345, -0.11111602582543356, 0.036631351195520571, -0.047192293281709007, -0.089859010658833574, -0.047958367594768264, 0.071547562748861787, 0.12139398697554162, 0.071006259948992581, -0.1151428253598398, -0.23909141543975179, -0.2221871894676358, -0.10546837265246418, -0.089872684184685039, -0.16963069651208643, -0.27814434607579908, -0.20777000166672091, -0.038304397320072993, 0.0, 0.0, 0.0, 0.0, 0.0, 0.0096020828160605799, 0.14197387972168313, 0.24312531816464938, 0.21784538732917239, 0.11488331409529656, 0.018510617084559797, -0.13835185791200985, -0.19917863909460837, -0.27423175624182566, -0.3890368336683076, -0.28826060313188939, -0.21557109382824571, -0.084957533584560818, -0.067265259804947131, -0.070941817790359921, -0.098247575251038749, -0.064238959161582745, -0.062043005776309799, -0.097828748725812847, -0.24340965408922541, -0.23992274095656932, -0.087006406905730888, -0.0046429572509179388, 0.0, 0.0, 0.0, 0.0, 5.9673024206542022e-07, 0.026697161663291849, 0.11595312482829129, 0.19830637353289776, 0.33804171197596117, 0.39912070813913231, 0.25080156945207727, -0.056047864441312337, -0.21678744974654907, -0.33269449888207164, -0.33052699548264364, -0.30161107659972791, -0.22870472190717367, -0.09892359458530528, 0.057009020924585783, 0.12760728403718716, 0.046883091662389416, -0.070820658550863683, -0.085582076492933493, -0.18686238317692419, -0.22847761228244987, -0.094645837228742133, -0.0089846592723828583, 2.5688430418474092e-05, 0.0, 0.0, 0.0, 0.0, 5.3705721785888001e-06, 0.027113623792107577, 0.13765070924446468, 0.17325941980905699, 0.15625144319408041, 0.23243296915645456, 0.15930837878476467, -0.079242948353802536, -0.23722729737298417, -0.29918772807423399, -0.27832394495610235, -0.24194399688613955, -0.15015982193090494, -0.044451112048422711, 0.023828095464347707, -0.0031222898394253412, -0.077515576303532299, -0.17623762429906331, -0.20393333590731896, -0.16522224809564623, -0.055351454967079571, -0.0047650925430242838, 0.00046939768310120871, 0.00014478933508594501, 0.0, 0.0, 0.0, 0.0, 1.7909783421758188e-05, 0.010809541723247941, 0.088198369816094413, 0.054349993412448949, -0.033587129427667277, -0.078004445268956737, -0.0033018144305085261, -0.04237090148240092, -0.18459372022525222, -0.26843633054709565, -0.28628503647758863, -0.27813743689165377, -0.24611417300969854, -0.18279447154906536, -0.30050906419068618, -0.42150244682218196, -0.35362202704027224, -0.3137983134290262, -0.12246860611349726, -0.0069619379652925712, 0.013785221997275226, 0.0046219313323412267, 0.00045187431117587376, 8.4071226824097037e-05, 0.0, 0.0, 0.0, 0.0, 3.625669371216637e-06, 0.0013401018060898964, 0.015329476512727617, -0.059925392861671471, -0.20189315431067106, -0.19415015134909397, -0.053986190493791053, -0.0021058604377912665, -0.024389089130293203, -0.11493256847875344, -0.17993800676629912, -0.21011819772319237, -0.23325191608010748, -0.30724238378829222, -0.4246209085407095, -0.42761360102619445, -0.3235434732357122, -0.10171992053820222, -0.0017227601570384055, 0.015512205538021779, 0.016741105242698544, 0.0095053427660783153, 0.00084008938491664101, 1.1676559281124598e-05, 0.0, 0.0, 0.0, 0.0, 2.1659439437618388e-08, 7.1536135648403491e-06, 4.6991747917085209e-05, -0.060631040186533161, -0.20879857468882276, -0.23537226485738738, -0.16413812621231125, -0.044087905698625314, -0.011021976424656328, -0.017192705021320538, -0.054167850422149492, -0.1067091541982647, -0.17754361321079981, -0.27452830738711759, -0.29767319486449401, -0.22492120356059941, -0.064683587638249898, -0.0012865191078570341, 0.0035522650509082704, 0.008708811243923793, 0.014322983801012216, 0.0076290483400085962, 0.00091832758237616989, 0.0, 0.0, 0.0, 0.0, 0.0, 1.9690399488743962e-09, 2.1659439437618388e-08, 4.5287918824111192e-08, -0.0099820662315603034, -0.1220542162272599, -0.231373061177435, -0.23445486366809354, -0.19338558635987863, -0.15731366351554943, -0.16132165494269704, -0.18136161207843549, -0.20240356707096108, -0.22444751992027376, -0.23446749848814338, -0.19739357778702701, -0.070139849975085905, -0.0048836410834370205, 0.0017436051668679345, 0.0029986294634893945, 0.0023931886785874762, 0.0043883691549585898, 0.0016247167538659658, 0.00014128177237785684, 0.0, 0.0, 0.0, 0.0, 0.0, 0.0, 0.0, 0.0, 0.0, -0.016031965708591053, -0.13025972138230213, -0.21843553277955252, -0.2404794856288649, -0.24849546848316109, -0.24749347062637389, -0.23847548991529158, -0.22745351349063503, -0.21142154778204414, -0.17334562922414082, -0.067133856404724662, -0.0060119871407216243, 0.0, 0.00024006158094558536, 0.0012382123648772328, 0.00031587050124419149, 1.2634820049767649e-05, 0.0, 0.0, 0.0, 0.0, 0.0, 0.0]